<?xml version="1.0"?>
<opencv_storage>
<cascade>
  <stageType>BOOST</stageType>
  <featureType>LBP</featureType>
  <height>50</height>
  <width>100</width>
  <stageParams>
    <boostType>GAB</boostType>
    <minHitRate>9.9900001287460327e-01</minHitRate>
    <maxFalseAlarm>1.0000000149011612e-01</maxFalseAlarm>
    <weightTrimRate>9.4999998807907104e-01</weightTrimRate>
    <maxDepth>1</maxDepth>
    <maxWeakCount>100</maxWeakCount></stageParams>
  <featureParams>
    <maxCatCount>256</maxCatCount>
    <featSize>1</featSize></featureParams>
  <stageNum>6</stageNum>
  <stages>
    <!-- stage 0 -->
    <_>
      <maxWeakCount>3</maxWeakCount>
      <stageThreshold>-1.0045617818832397e+00</stageThreshold>
      <weakClassifiers>
        <_>
          <internalNodes>
            0 -1 6 -548539911 -788332527 16793673 -653852621 -1996472320
            -922222592 1073897483 -619724085</internalNodes>
          <leafValues>
            -9.9578946828842163e-01 8.5142856836318970e-01</leafValues></_>
        <_>
          <internalNodes>
            0 -1 5 -788410145 -787382255 285212691 1497747763
            -2147450695 1879048200 -1073684325 -3414005</internalNodes>
          <leafValues>
            -9.0419501066207886e-01 9.8017984628677368e-01</leafValues></_>
        <_>
          <internalNodes>
            0 -1 9 -788475482 -780025856 16778065 -641646463 -2004319576
            -2004809719 67162762 -74454837</internalNodes>
          <leafValues>
            -9.6168601512908936e-01 8.9542269706726074e-01</leafValues></_></weakClassifiers></_>
    <!-- stage 1 -->
    <_>
      <maxWeakCount>2</maxWeakCount>
      <stageThreshold>-8.3474822342395782e-02</stageThreshold>
      <weakClassifiers>
        <_>
          <internalNodes>
            0 -1 4 -654192161 -778338159 268439625 -49053685 -939491157
            -385318776 -2004301637 1400995867</internalNodes>
          <leafValues>
            -9.9164927005767822e-01 8.6705201864242554e-01</leafValues></_>
        <_>
          <internalNodes>
            0 -1 15 -744883489 -720265071 147 -486440889 -1056931701
            -1979187064 1124182667 -934282357</internalNodes>
          <leafValues>
            -9.0924549102783203e-01 9.0817445516586304e-01</leafValues></_></weakClassifiers></_>
    <!-- stage 2 -->
    <_>
      <maxWeakCount>4</maxWeakCount>
      <stageThreshold>-2.2872185707092285e-01</stageThreshold>
      <weakClassifiers>
        <_>
          <internalNodes>
            0 -1 12 1358959903 -788328383 285229213 -1627308031
            1074266280 -74842104 -2013230933 -83131749</internalNodes>
          <leafValues>
            -9.2369478940963745e-01 8.7155961990356445e-01</leafValues></_>
        <_>
          <internalNodes>
            0 -1 0 -610279937 -788278903 1358954779 -780037795
            -1060534101 -1022844280 -917913371 -69487849</internalNodes>
          <leafValues>
            -9.7023576498031616e-01 8.0273514986038208e-01</leafValues></_>
        <_>
          <internalNodes>
            0 -1 7 -580922881 -677805997 -1434173157 -552480751
            -183979640 -639401976 -1476161525 -82052273</internalNodes>
          <leafValues>
            -8.9300101995468140e-01 8.8283056020736694e-01</leafValues></_>
        <_>
          <internalNodes>
            0 -1 3 -721300483 -16146283 1224835417 -620425207 -631115605
            2057879688 -1207918337 2072994331</internalNodes>
          <leafValues>
            -9.5503562688827515e-01 7.8523880243301392e-01</leafValues></_></weakClassifiers></_>
    <!-- stage 3 -->
    <_>
      <maxWeakCount>4</maxWeakCount>
      <stageThreshold>-2.3656819760799408e-01</stageThreshold>
      <weakClassifiers>
        <_>
          <internalNodes>
            0 -1 2 -615251969 -1 -136314881 -1179665 -657921 -134220289
            -788269057 -985414453</internalNodes>
          <leafValues>
            -8.7152445316314697e-01 9.2092257738113403e-01</leafValues></_>
        <_>
          <internalNodes>
            0 -1 18 -723541765 -578482176 82259 1496547603 -2147435609
            -2013265920 -2113896305 -541117489</internalNodes>
          <leafValues>
            -9.3215847015380859e-01 8.1847125291824341e-01</leafValues></_>
        <_>
          <internalNodes>
            0 -1 14 1359204815 -1862134776 268554717 -1857367656
            -134166293 -2004317568 1509985279 -841110823</internalNodes>
          <leafValues>
            -9.4704949855804443e-01 8.2392215728759766e-01</leafValues></_>
        <_>
          <internalNodes>
            0 -1 1 -619198849 -712654827 15 -716898047 -930510197
            -931037181 1090638003 1166271303</internalNodes>
          <leafValues>
            -9.4696372747421265e-01 7.6353448629379272e-01</leafValues></_></weakClassifiers></_>
    <!-- stage 4 -->
    <_>
      <maxWeakCount>4</maxWeakCount>
      <stageThreshold>-2.4379871785640717e-01</stageThreshold>
      <weakClassifiers>
        <_>
          <internalNodes>
            0 -1 19 -552340261 -669969901 1073775091 302620754
            -929855253 -92045184 -1056586757 -520750373</internalNodes>
          <leafValues>
            -9.4462192058563232e-01 7.5527423620223999e-01</leafValues></_>
        <_>
          <internalNodes>
            0 -1 11 -753872616 -547946493 63 2100494851 -930970386
            -2004705278 -536833366 -83632126</internalNodes>
          <leafValues>
            -9.1891807317733765e-01 7.3938184976577759e-01</leafValues></_>
        <_>
          <internalNodes>
            0 -1 17 -1034828323 -1722695679 1090617429 521519685
            -653097574 -1148485468 -939134229 -1366324513</internalNodes>
          <leafValues>
            -8.4876489639282227e-01 8.1985968351364136e-01</leafValues></_>
        <_>
          <internalNodes>
            0 -1 10 -606085673 -780042159 -1988050816 -15613952
            -577806141 1795178515 -1979602801 -621835569</internalNodes>
          <leafValues>
            -8.7111830711364746e-01 8.1020629405975342e-01</leafValues></_></weakClassifiers></_>
    <!-- stage 5 -->
    <_>
      <maxWeakCount>4</maxWeakCount>
      <stageThreshold>-2.2836184501647949e-01</stageThreshold>
      <weakClassifiers>
        <_>
          <internalNodes>
            0 -1 8 -775425318 -45940224 33620371 1224802385 -636872738
            -106397047 -936766757 -668248037</internalNodes>
          <leafValues>
            -8.4935581684112549e-01 7.9095160961151123e-01</leafValues></_>
        <_>
          <internalNodes>
            0 -1 16 -1031092097 -598552432 -1056911175 -586989555
            -2130664826 -1157070848 -1300219445 -74472949</internalNodes>
          <leafValues>
            -9.2864000797271729e-01 7.2509402036666870e-01</leafValues></_>
        <_>
          <internalNodes>
            0 -1 13 -917642265 -607449087 50402079 -753196523
            -1012874357 -1342144503 -368530805 -132652649</internalNodes>
          <leafValues>
            -8.5638165473937988e-01 7.8604447841644287e-01</leafValues></_>
        <_>
          <internalNodes>
            0 -1 20 -799547137 -178925309 -796475363 5554195 1210286282
            -905838078 -259489569 -1059593985</internalNodes>
          <leafValues>
            -8.7671792507171631e-01 7.6911401748657227e-01</leafValues></_></weakClassifiers></_></stages>
  <features>
    <_>
      <rect>
        0 5 14 10</rect></_>
    <_>
      <rect>
        0 21 7 8</rect></_>
    <_>
      <rect>
        0 24 8 6</rect></_>
    <_>
      <rect>
        0 38 31 4</rect></_>
    <_>
      <rect>
        1 4 31 9</rect></_>
    <_>
      <rect>
        1 25 28 8</rect></_>
    <_>
      <rect>
        4 20 16 10</rect></_>
    <_>
      <rect>
        4 21 13 9</rect></_>
    <_>
      <rect>
        5 24 11 4</rect></_>
    <_>
      <rect>
        6 29 12 5</rect></_>
    <_>
      <rect>
        21 24 13 8</rect></_>
    <_>
      <rect>
        24 36 8 2</rect></_>
    <_>
      <rect>
        24 47 11 1</rect></_>
    <_>
      <rect>
        25 7 16 9</rect></_>
    <_>
      <rect>
        29 14 20 5</rect></_>
    <_>
      <rect>
        37 6 21 14</rect></_>
    <_>
      <rect>
        41 26 14 7</rect></_>
    <_>
      <rect>
        43 37 17 4</rect></_>
    <_>
      <rect>
        47 20 13 10</rect></_>
    <_>
      <rect>
        62 11 12 7</rect></_>
    <_>
      <rect>
        79 17 7 8</rect></_></features></cascade>
</opencv_storage>
